<?xml version="1.0"?>
<MethodSetup Method="DNN::DNN">
  <GeneralInfo>
    <Info name="TMVA Release" value="4.2.1 [262657]"/>
    <Info name="ROOT Release" value="6.12/07 [396295]"/>
    <Info name="Creator" value="fderiggi"/>
    <Info name="Date" value="Fri Apr  8 15:33:27 2022"/>
    <Info name="Host" value="Linux vocms0301.cern.ch 2.6.32-696.30.1.el6.x86_64 #1 SMP Tue May 22 06:09:36 CEST 2018 x86_64 x86_64 x86_64 GNU/Linux"/>
    <Info name="Dir" value="/afs/cern.ch/user/f/fderiggi/CMSSW_10_2_13/src/Analysis/BDT_analysis/python2"/>
    <Info name="Training events" value="1238438"/>
    <Info name="TrainingTime" value="6.67992524e+02"/>
    <Info name="AnalysisType" value="Multiclass"/>
  </GeneralInfo>
  <Options>
    <Option name="V" modified="Yes">False</Option>
    <Option name="VerbosityLevel" modified="No">Default</Option>
    <Option name="VarTransform" modified="Yes">N</Option>
    <Option name="H" modified="Yes">False</Option>
    <Option name="CreateMVAPdfs" modified="No">False</Option>
    <Option name="IgnoreNegWeightsInTraining" modified="No">False</Option>
    <Option name="Layout" modified="Yes">RELU|100,LINEAR</Option>
    <Option name="ValidationSize" modified="No">20%</Option>
    <Option name="ErrorStrategy" modified="Yes">CROSSENTROPY</Option>
    <Option name="WeightInitialization" modified="Yes">XAVIERUNIFORM</Option>
    <Option name="Architecture" modified="Yes">CPU</Option>
    <Option name="TrainingStrategy" modified="Yes">Optimizer=ADAM,LearningRate=0.001,TestRepetitions=1,ConvergenceSteps=10,BatchSize=128,Regularization</Option>
  </Options>
  <Variables NVar="10">
    <Variable VarIndex="0" Expression="dijet_dipho_dphi" Label="dijet_dipho_dphi" Title="dijet_dipho_dphi" Unit="" Internal="dijet_dipho_dphi" Type="F" Min="4.33681853e-05" Max="3.14159250e+00"/>
    <Variable VarIndex="1" Expression="dipho_lead_ptoM" Label="dipho_lead_ptoM" Title="dipho_lead_ptoM" Unit="" Internal="dipho_lead_ptoM" Type="F" Min="3.33011329e-01" Max="2.52114239e+01"/>
    <Variable VarIndex="2" Expression="dijet_dipho_pt" Label="dijet_dipho_pt" Title="dijet_dipho_pt" Unit="" Internal="dijet_dipho_pt" Type="F" Min="3.39113288e-02" Max="4.07818945e+03"/>
    <Variable VarIndex="3" Expression="dijet_abs_dEta" Label="dijet_abs_dEta" Title="dijet_abs_dEta" Unit="" Internal="dijet_abs_dEta" Type="F" Min="4.17232513e-06" Max="9.17676353e+00"/>
    <Variable VarIndex="4" Expression="dijet_Zep" Label="dijet_Zep" Title="dijet_Zep" Unit="" Internal="dijet_Zep" Type="F" Min="2.69035854e-06" Max="1.00844450e+01"/>
    <Variable VarIndex="5" Expression="dijet_minDRJetPho" Label="dijet_minDRJetPho" Title="dijet_minDRJetPho" Unit="" Internal="dijet_minDRJetPho" Type="F" Min="4.00006175e-01" Max="5.24513817e+00"/>
    <Variable VarIndex="6" Expression="dipho_sublead_ptoM" Label="dipho_sublead_ptoM" Title="dipho_sublead_ptoM" Unit="" Internal="dipho_sublead_ptoM" Type="F" Min="2.50000089e-01" Max="9.11310959e+00"/>
    <Variable VarIndex="7" Expression="jet2_pt" Label="jet2_pt" Title="jet2_pt" Unit="" Internal="jet2_pt" Type="F" Min="3.00000114e+01" Max="2.56629102e+03"/>
    <Variable VarIndex="8" Expression="CosPhi" Label="CosPhi" Title="CosPhi" Unit="" Internal="CosPhi" Type="F" Min="-1.00000000e+00" Max="1.00000000e+00"/>
    <Variable VarIndex="9" Expression="dijet_dphi" Label="dijet_dphi" Title="dijet_dphi" Unit="" Internal="dijet_dphi" Type="F" Min="3.33786011e-06" Max="3.14159250e+00"/>
  </Variables>
  <Spectators NSpec="0"/>
  <Classes NClass="3">
    <Class Name="BKG" Index="0"/>
    <Class Name="SM" Index="1"/>
    <Class Name="BSM" Index="2"/>
  </Classes>
  <Transformations NTransformations="1">
    <Transform Name="Normalize">
      <Selection>
        <Input NInputs="10">
          <Input Type="Variable" Label="dijet_dipho_dphi" Expression="dijet_dipho_dphi"/>
          <Input Type="Variable" Label="dipho_lead_ptoM" Expression="dipho_lead_ptoM"/>
          <Input Type="Variable" Label="dijet_dipho_pt" Expression="dijet_dipho_pt"/>
          <Input Type="Variable" Label="dijet_abs_dEta" Expression="dijet_abs_dEta"/>
          <Input Type="Variable" Label="dijet_Zep" Expression="dijet_Zep"/>
          <Input Type="Variable" Label="dijet_minDRJetPho" Expression="dijet_minDRJetPho"/>
          <Input Type="Variable" Label="dipho_sublead_ptoM" Expression="dipho_sublead_ptoM"/>
          <Input Type="Variable" Label="jet2_pt" Expression="jet2_pt"/>
          <Input Type="Variable" Label="CosPhi" Expression="CosPhi"/>
          <Input Type="Variable" Label="dijet_dphi" Expression="dijet_dphi"/>
        </Input>
        <Output NOutputs="10">
          <Output Type="Variable" Label="dijet_dipho_dphi" Expression="dijet_dipho_dphi"/>
          <Output Type="Variable" Label="dipho_lead_ptoM" Expression="dipho_lead_ptoM"/>
          <Output Type="Variable" Label="dijet_dipho_pt" Expression="dijet_dipho_pt"/>
          <Output Type="Variable" Label="dijet_abs_dEta" Expression="dijet_abs_dEta"/>
          <Output Type="Variable" Label="dijet_Zep" Expression="dijet_Zep"/>
          <Output Type="Variable" Label="dijet_minDRJetPho" Expression="dijet_minDRJetPho"/>
          <Output Type="Variable" Label="dipho_sublead_ptoM" Expression="dipho_sublead_ptoM"/>
          <Output Type="Variable" Label="jet2_pt" Expression="jet2_pt"/>
          <Output Type="Variable" Label="CosPhi" Expression="CosPhi"/>
          <Output Type="Variable" Label="dijet_dphi" Expression="dijet_dphi"/>
        </Output>
      </Selection>
      <Class ClassIndex="0">
        <Ranges>
          <Range Index="0" Min="4.3368185288272798e-05" Max="3.1415891647338867e+00"/>
          <Range Index="1" Min="3.3301445841789246e-01" Max="1.2094552993774414e+01"/>
          <Range Index="2" Min="4.2533125728368759e-02" Max="4.0781894531250000e+03"/>
          <Range Index="3" Min="2.2713094949722290e-05" Max="9.1380338668823242e+00"/>
          <Range Index="4" Min="5.9175822570978198e-06" Max="1.0084444999694824e+01"/>
          <Range Index="5" Min="4.0000617504119873e-01" Max="5.2451381683349609e+00"/>
          <Range Index="6" Min="2.5000008940696716e-01" Max="3.5396335124969482e+00"/>
          <Range Index="7" Min="3.0000013351440430e+01" Max="2.2587124023437500e+03"/>
          <Range Index="8" Min="-1.0000000000000000e+00" Max="1.0000000000000000e+00"/>
          <Range Index="9" Min="2.1219253540039062e-05" Max="3.1415925025939941e+00"/>
        </Ranges>
      </Class>
      <Class ClassIndex="1">
        <Ranges>
          <Range Index="0" Min="5.4740754421800375e-04" Max="3.1415925025939941e+00"/>
          <Range Index="1" Min="3.3301132917404175e-01" Max="9.0291919708251953e+00"/>
          <Range Index="2" Min="7.6321586966514587e-02" Max="7.4501678466796875e+02"/>
          <Range Index="3" Min="1.0768175125122070e-03" Max="9.1767635345458984e+00"/>
          <Range Index="4" Min="1.6579850125708617e-05" Max="7.9259853363037109e+00"/>
          <Range Index="5" Min="4.0043312311172485e-01" Max="4.8254766464233398e+00"/>
          <Range Index="6" Min="2.5000014901161194e-01" Max="4.6896142959594727e+00"/>
          <Range Index="7" Min="3.0000011444091797e+01" Max="9.4752899169921875e+02"/>
          <Range Index="8" Min="-1.0000000000000000e+00" Max="1.0000000000000000e+00"/>
          <Range Index="9" Min="3.3378601074218750e-06" Max="3.1415798664093018e+00"/>
        </Ranges>
      </Class>
      <Class ClassIndex="2">
        <Ranges>
          <Range Index="0" Min="7.6421674748416990e-05" Max="3.1415925025939941e+00"/>
          <Range Index="1" Min="3.3307164907455444e-01" Max="2.5211423873901367e+01"/>
          <Range Index="2" Min="3.3911328762769699e-02" Max="1.7664801025390625e+03"/>
          <Range Index="3" Min="4.1723251342773438e-06" Max="8.8918533325195312e+00"/>
          <Range Index="4" Min="2.6903585421678144e-06" Max="8.6043529510498047e+00"/>
          <Range Index="5" Min="4.0006503462791443e-01" Max="5.1938657760620117e+00"/>
          <Range Index="6" Min="2.5000086426734924e-01" Max="9.1131095886230469e+00"/>
          <Range Index="7" Min="3.0000097274780273e+01" Max="2.5662910156250000e+03"/>
          <Range Index="8" Min="-1.0000000000000000e+00" Max="1.0000000000000000e+00"/>
          <Range Index="9" Min="1.4185905456542969e-05" Max="3.1415874958038330e+00"/>
        </Ranges>
      </Class>
      <Class ClassIndex="3">
        <Ranges>
          <Range Index="0" Min="4.3368185288272798e-05" Max="3.1415925025939941e+00"/>
          <Range Index="1" Min="3.3301132917404175e-01" Max="2.5211423873901367e+01"/>
          <Range Index="2" Min="3.3911328762769699e-02" Max="4.0781894531250000e+03"/>
          <Range Index="3" Min="4.1723251342773438e-06" Max="9.1767635345458984e+00"/>
          <Range Index="4" Min="2.6903585421678144e-06" Max="1.0084444999694824e+01"/>
          <Range Index="5" Min="4.0000617504119873e-01" Max="5.2451381683349609e+00"/>
          <Range Index="6" Min="2.5000008940696716e-01" Max="9.1131095886230469e+00"/>
          <Range Index="7" Min="3.0000011444091797e+01" Max="2.5662910156250000e+03"/>
          <Range Index="8" Min="-1.0000000000000000e+00" Max="1.0000000000000000e+00"/>
          <Range Index="9" Min="3.3378601074218750e-06" Max="3.1415925025939941e+00"/>
        </Ranges>
      </Class>
    </Transform>
  </Transformations>
  <MVAPdfs/>
  <Weights InputWidth="10" Depth="2" LossFunction="C" OutputFunction="M">
    <Layer ActivationFunction="1">
      <Weights rows="100" cols="10">
        1.7965230345726013e-01 -8.2035481929779053e-02 3.2729437947273254e-01 1.1765265464782715e-01 9.6140623092651367e-02 -4.0971368551254272e-01 -9.7615592181682587e-02 3.1023731827735901e-01 3.0977499485015869e-01 6.1232429742813110e-01 -4.0045529603958130e-01 -2.9275462031364441e-01 2.1762678027153015e-01 3.7109252065420151e-02 2.8659600019454956e-01 3.2659512758255005e-01 -3.5371327400207520e-01 2.3667679727077484e-01 3.6747086048126221e-01 4.7986087203025818e-01 -3.1159052252769470e-01 4.5562702417373657e-01 4.2628757655620575e-02 -2.8351438045501709e-01 -2.6950875297188759e-02 1.7787462472915649e-01 -2.7180230617523193e-01 1.2405943125486374e-02 4.9502518028020859e-02 -2.2053053602576256e-02 9.0387417003512383e-03 2.7281287312507629e-01 -2.0239481329917908e-01 -3.3862161636352539e-01 2.9958325624465942e-01 -2.7016371488571167e-01 1.3701429963111877e-01 1.7681717872619629e-01 9.1306390240788460e-03 -1.3753376901149750e-01 2.4017462134361267e-01 -2.9485800862312317e-01 -4.5890566706657410e-01 -1.6858689486980438e-02 -4.1242367029190063e-01 -2.4544663727283478e-02 -2.9677988961338997e-02 -2.6722308993339539e-01 8.4450669586658478e-02 4.2315229773521423e-01 5.3810626268386841e-01 -3.1345576047897339e-01 1.4912913739681244e-01 1.8377879261970520e-01 -4.8409767448902130e-02 4.5951269567012787e-02 3.9437314867973328e-01 -1.3118878006935120e-01 7.6827108860015869e-02 3.8300544023513794e-02 -7.9410955309867859e-02 -3.5923692584037781e-01 2.2457149624824524e-01 3.3557432889938354e-01 3.7984606623649597e-01 1.2782148085534573e-02 3.6178177595138550e-01 3.3156070113182068e-01 -1.0141554474830627e-01 2.1203103661537170e-01 -3.1978677958250046e-02 1.0748966783285141e-01 1.8399831652641296e-01 -3.5445949435234070e-01 1.8893070518970490e-01 -1.5491503477096558e-01 5.0134472548961639e-02 -2.3595719039440155e-01 -3.9939463138580322e-02 -2.9946988821029663e-01 2.2151820361614227e-01 -8.0695360898971558e-01 4.8224535584449768e-01 5.6403607130050659e-01 -1.8268369138240814e-01 4.6933904290199280e-01 -5.4519939422607422e-01 -5.0877112150192261e-01 -2.2572864592075348e-01 -4.8564445972442627e-01 5.1409900188446045e-01 5.8472287654876709e-01 2.9832890629768372e-01 -6.5007537603378296e-02 -2.5872501730918884e-01 -4.9362815916538239e-03 5.0932735204696655e-01 -2.3142179846763611e-01 3.4871417284011841e-01 -1.2707512080669403e-01 2.8921324014663696e-01 8.5726535320281982e-01 -2.2463449835777283e-01 3.2183441519737244e-01 2.4341760575771332e-01 1.2341798841953278e-01 3.1280767172574997e-02 -1.8547876179218292e-01 5.7276386022567749e-01 -1.7950946092605591e-01 -2.0361752808094025e-01 1.8403734266757965e-01 -7.0718377828598022e-02 -5.8459632098674774e-02 -3.4156743437051773e-02 9.8039053380489349e-02 4.1745758056640625e-01 2.3909768462181091e-01 -2.1131071448326111e-01 2.0738874375820160e-01 -8.8748866692185402e-03 5.0962752103805542e-01 -5.2320754528045654e-01 3.0262586474418640e-01 3.0200761556625366e-01 4.3227827548980713e-01 -2.3379069566726685e-01 -2.1551682054996490e-01 6.8261027336120605e-01 4.3024623394012451e-01 -4.2095831036567688e-01 3.8999310135841370e-01 3.1738844513893127e-01 -7.1841485798358917e-02 -5.2758567035198212e-02 1.9185692071914673e-01 2.5285327434539795e-01 -3.4614071249961853e-01 -5.6611131876707077e-02 -3.2730454206466675e-01 2.5949227809906006e-01 3.1720650196075439e-01 -4.5016312599182129e-01 2.6410084962844849e-01 3.7290596961975098e-01 7.8370124101638794e-02 -2.6999201625585556e-02 -3.6349496245384216e-01 -1.9456215202808380e-01 4.1539588570594788e-01 -3.5762059688568115e-01 3.4759962558746338e-01 -3.5357919335365295e-01 -6.8828858435153961e-02 -3.3797407150268555e-01 3.4786498546600342e-01 -7.4386887252330780e-02 -1.5364030003547668e-01 -1.4988110959529877e-01 2.6984757184982300e-01 2.9411426186561584e-01 7.8788810968399048e-01 -5.7083350419998169e-01 -1.0997390374541283e-02 -2.1260306239128113e-02 1.4667744748294353e-02 6.9862172007560730e-02 7.9785816371440887e-02 3.0791598558425903e-01 2.7742522954940796e-01 -1.4829149842262268e-01 -2.5515040755271912e-01 -1.8144495785236359e-01 -4.8077628016471863e-02 5.5184888839721680e-01 -6.6712665557861328e-01 3.1800234317779541e-01 3.8122370839118958e-02 3.6646988987922668e-01 2.5161233544349670e-01 4.3823683261871338e-01 4.3387451767921448e-01 -4.3498101830482483e-01 1.5579373575747013e-02 -1.8132497370243073e-01 1.5918052196502686e-01 4.4465631246566772e-01 5.4463924607262015e-04 1.4201983809471130e-01 -1.3589738309383392e-01 1.6260473430156708e-01 2.8042924404144287e-01 -2.3912068456411362e-02 -6.4129602909088135e-01 6.6160339117050171e-01 -7.1287024021148682e-01 -3.6990505456924438e-01 2.5390279293060303e-01 -5.8021258562803268e-02 1.9244436919689178e-01 -2.1423268318176270e-01 -4.2357027530670166e-01 -4.9035236239433289e-02 9.2987589538097382e-02 3.3217856287956238e-01 -1.9200326502323151e-01 1.6428488492965698e-01 -3.2800711691379547e-02 -3.8025897741317749e-01 -5.4567420482635498e-01 2.0781098306179047e-01 2.8046256303787231e-01 2.4743069708347321e-01 2.0783026516437531e-01 1.3504137098789215e-01 -2.2500431537628174e-01 1.9713979959487915e-01 -1.3042658567428589e-01 2.0226391032338142e-02 -3.5645988583564758e-01 7.2194278240203857e-02 7.8442379832267761e-02 -7.4382089078426361e-02 -3.3461665734648705e-03 2.9236012697219849e-01 -1.5666893124580383e-01 -2.4040891230106354e-01 -1.4116244018077850e-01 -3.8812944293022156e-01 1.6414745151996613e-01 1.2863698005676270e+00 8.2475078105926514e-01 -3.7949085235595703e-01 5.6288433074951172e-01 -3.8746014237403870e-01 -1.1705701798200607e-01 6.2624466419219971e-01 1.3924330472946167e-01 1.9385489821434021e-01 -2.3300834000110626e-01 9.7804911434650421e-02 1.0755572468042374e-01 -3.2855397462844849e-01 4.3490710854530334e-01 3.5208380222320557e-01 -2.1880674362182617e-01 3.7472631782293320e-02 4.1531134396791458e-02 2.9549351334571838e-01 1.1254285275936127e-01 4.8008289933204651e-01 -5.1929777860641479e-01 4.6874296665191650e-01 -1.2636546790599823e-01 -1.8012575805187225e-02 3.8363611698150635e-01 -1.8042412400245667e-01 -2.7331781387329102e-01 2.2613266110420227e-01 3.0811905860900879e-01 -3.4965690225362778e-02 2.3871821165084839e-01 -1.2627646327018738e-01 -1.4436700940132141e-01 1.5768396854400635e-01 -5.3492449223995209e-02 -1.9199584424495697e-01 9.3011699616909027e-02 -5.9458786249160767e-01 -5.0805467367172241e-01 -3.5205674171447754e-01 -1.9907401502132416e-01 -1.6036675870418549e-01 -5.9714126586914062e-01 3.9584112167358398e-01 -1.0553796589374542e-01 -7.1210604906082153e-01 1.9887326657772064e-01 -4.5794621109962463e-01 -2.3685339838266373e-02 -4.1776990890502930e-01 -2.3356467485427856e-01 -1.7542405426502228e-01 4.8645059578120708e-03 2.4339069426059723e-01 -3.2818791270256042e-01 -2.5615629553794861e-01 3.0006992816925049e-01 8.1794399023056030e-01 9.0330243110656738e-02 -7.5832530856132507e-02 -3.9600305259227753e-02 1.6705912351608276e-01 1.8798395991325378e-01 -3.3046939969062805e-01 2.0294846594333649e-01 -4.4710567593574524e-01 -4.8155376315116882e-01 9.6260935068130493e-02 -2.8154069185256958e-01 -3.2817986607551575e-01 -5.0610399246215820e-01 -1.2284551560878754e-01 -1.7805002629756927e-01 -1.2319023162126541e-01 -2.1270486712455750e-01 -5.2920013666152954e-01 2.0327727496623993e-01 1.1852052807807922e-01 -1.0674187541007996e-01 -2.5803974270820618e-01 1.5941998362541199e-01 2.9073965549468994e-01 1.5012244880199432e-01 -1.1737190186977386e-01 -1.4473168551921844e-01 1.8252183496952057e-01 3.5160478949546814e-01 1.8655468523502350e-01 7.3621380142867565e-03 1.5266041457653046e-01 -7.9675376415252686e-01 5.2274990081787109e-01 -2.6079556345939636e-01 2.4221412837505341e-01 -3.4212794899940491e-01 4.9721378833055496e-02 -6.2976074218750000e-01 1.7001737654209137e-01 -2.3737326264381409e-01 -2.0096082985401154e-01 3.1867018342018127e-01 -2.6833987236022949e-01 -1.0730580240488052e-01 3.9859068393707275e-01 1.2984552979469299e-01 2.1822567284107208e-01 1.8005003035068512e-01 2.5330719351768494e-01 -1.8183454871177673e-01 5.4412148892879486e-02 -1.5095014870166779e-01 8.8263586163520813e-02 -3.9259675145149231e-01 6.4138960838317871e-01 -2.0750564336776733e-01 -9.1473795473575592e-02 -8.7092570960521698e-02 3.7708055227994919e-02 1.2512488663196564e-01 2.5355479121208191e-01 1.1208101361989975e-01 4.6788308024406433e-01 -2.2793102264404297e-01 3.4092459082603455e-01 -4.0601339936256409e-01 1.9033136777579784e-03 -2.1352498233318329e-01 1.7137072980403900e-01 2.6874986290931702e-01 3.9246144890785217e-01 -8.6627978086471558e-01 1.1026867479085922e-01 4.2895227670669556e-01 1.2936383485794067e-01 -2.4610853195190430e-01 -1.8763156235218048e-01 -4.9456518888473511e-01 -1.8234016001224518e-01 1.4012551307678223e-01 2.2974695265293121e-01 -4.2829942703247070e-01 1.5721900761127472e-01 -1.8488945066928864e-01 -1.1552795767784119e-01 -1.5109226107597351e-01 3.1105977296829224e-01 -1.0509000718593597e-01 -3.6408130079507828e-02 2.1234554052352905e-01 2.2382695972919464e-01 5.5384790897369385e-01 -6.9450432062149048e-01 -4.5962235331535339e-01 4.7587621212005615e-01 -7.9008236527442932e-02 3.6171385645866394e-01 8.4935769438743591e-02 3.7320604920387268e-01 3.2648158073425293e-01 7.5563889741897583e-01 8.6680692434310913e-01 -2.3764675855636597e-01 -3.5857030749320984e-01 -2.5655433535575867e-01 3.0964411795139313e-02 8.7858581542968750e-01 1.5133909881114960e-01 4.1247567534446716e-01 -1.9379848241806030e-01 3.9848625659942627e-01 4.3382009863853455e-01 3.7217345833778381e-01 6.4096599817276001e-02 -2.3965910077095032e-01 2.5615531206130981e-01 -1.4482523500919342e-01 4.1910141706466675e-01 1.3063454627990723e-01 -3.5918071866035461e-01 3.7440884113311768e-01 -2.2051808238029480e-01 -3.2301780581474304e-01 2.8604435920715332e-01 2.8263030108064413e-03 3.4902912378311157e-01 6.1828911304473877e-02 3.2745152711868286e-01 -5.2008807659149170e-01 -2.1047145128250122e-01 -5.4942924529314041e-02 2.0839613676071167e-01 -6.0900360345840454e-02 1.7781510949134827e-01 2.6547327637672424e-01 -4.8272728919982910e-01 7.3961779475212097e-02 -8.2872919738292694e-02 3.3235889673233032e-01 3.4443813562393188e-01 -3.1441178172826767e-02 4.3508866429328918e-01 2.8800453990697861e-02 -1.1349509656429291e-01 1.8626494705677032e-01 3.7452545762062073e-01 -3.8178730010986328e-01 2.2860878705978394e-01 3.9061047136783600e-02 1.1939164996147156e-01 -3.1359121203422546e-01 -1.9083707034587860e-01 -5.0444090366363525e-01 7.9156897962093353e-02 -1.6674965620040894e-01 1.1322084814310074e-01 3.6251742392778397e-02 4.2106710374355316e-02 4.8383429646492004e-02 3.6114004254341125e-01 -8.4173731505870819e-02 3.2397553324699402e-01 -1.8337422609329224e-01 -4.2936182022094727e-01 4.1961395740509033e-01 3.6358017474412918e-02 -4.0475252270698547e-01 3.3865702152252197e-01 3.9357414841651917e-01 3.7180263549089432e-02 5.4229384660720825e-01 4.6504637598991394e-01 -3.1974411010742188e-01 -2.9055273532867432e-01 7.7683232724666595e-02 1.8259169533848763e-02 4.7350722551345825e-01 -2.3023694753646851e-02 2.1918398141860962e-01 -4.3182259798049927e-01 -1.6628392040729523e-01 -7.0812515914440155e-02 -3.4510904550552368e-01 4.4905644655227661e-01 -2.3507896810770035e-02 2.2999759018421173e-01 3.7642759084701538e-01 -1.9882279634475708e-01 -3.6339026689529419e-01 -5.8598494529724121e-01 -7.6735699549317360e-03 1.7534777522087097e-01 5.3515815734863281e-01 8.5038147866725922e-02 -2.4504050612449646e-01 -5.3409481048583984e-01 -4.0547734498977661e-01 1.6316662728786469e-01 2.7824527025222778e-01 4.6509552001953125e-01 2.8594734147191048e-02 -2.1768207848072052e-01 -1.0919680818915367e-02 7.6319016516208649e-02 4.4531175494194031e-01 -3.0003795027732849e-01 7.0609368383884430e-02 3.7233513593673706e-01 -1.1695790290832520e-01 -3.5447791218757629e-01 -4.0873780846595764e-01 2.1519231796264648e-01 -3.8844457268714905e-01 4.3459516763687134e-01 -4.8823454976081848e-01 -2.3383626714348793e-02 -1.0503576695919037e-01 -1.2841570377349854e-01 4.6334620565176010e-02 1.5723676979541779e-01 1.5384140610694885e-01 -5.3781336545944214e-01 -6.9052927196025848e-02 7.8146201372146606e-01 -4.2046740651130676e-01 3.0393666028976440e-01 1.2485631555318832e-01 -1.3961622118949890e-01 -2.5383818149566650e-01 -1.6328933835029602e-01 3.6617764830589294e-01 -5.4572436958551407e-02 -1.0670488327741623e-01 -1.0706509649753571e-01 3.8244754076004028e-01 3.5118308663368225e-01 3.6553665995597839e-02 2.3357409238815308e-01 1.5972888469696045e-01 4.9536406993865967e-01 1.6277167201042175e-01 -2.6411193609237671e-01 3.1777712702751160e-01 4.3832965195178986e-02 -1.7466995120048523e-01 -3.9620122313499451e-01 2.6007878780364990e-01 4.3716482818126678e-02 1.2833970785140991e-01 -3.7000946700572968e-02 1.0896708816289902e-02 2.7608305215835571e-01 1.2709300220012665e-01 1.3821867108345032e-01 -2.1008051931858063e-01 2.2046740353107452e-01 -5.9767987579107285e-02 -5.0146335363388062e-01 -2.8932610154151917e-01 -4.8624145984649658e-01 -3.1123006343841553e-01 -1.1079436540603638e-01 1.5358048677444458e-01 3.1363725662231445e-01 1.5949374437332153e-01 2.9633814096450806e-01 -1.6139802336692810e-01 2.8151935338973999e-01 4.2777195572853088e-01 2.7744030952453613e-01 -2.9668077826499939e-01 2.9115793108940125e-01 3.1862738728523254e-01 3.3834499120712280e-01 -1.9464606046676636e-01 3.7035599350929260e-01 4.1591957211494446e-01 -1.6077564656734467e-01 2.5087898969650269e-01 1.4865148067474365e-01 -3.3108803629875183e-01 -4.7016835212707520e-01 -1.5388399362564087e-01 -1.0713927447795868e-01 1.9560594856739044e-01 -3.5213413834571838e-01 -5.3824800252914429e-01 -3.5406261682510376e-01 1.5908592939376831e-01 1.7128814756870270e-01 1.8349702656269073e-01 -1.1222714185714722e-01 3.7748992443084717e-01 3.3389276266098022e-01 -1.6725527122616768e-02 -1.9555723667144775e-01 3.7771704792976379e-01 -3.3867630362510681e-01 -1.9919526576995850e-01 1.5432399511337280e-01 9.8633460700511932e-02 4.8022870905697346e-03 9.7479730844497681e-02 -5.6348204612731934e-01 4.3478468060493469e-01 -2.8388679027557373e-01 -3.1186765432357788e-01 -7.7226758003234863e-02 4.0787804126739502e-01 1.2770134210586548e-01 -1.5176232159137726e-01 2.8218165040016174e-01 2.9978176951408386e-01 -2.5763407349586487e-01 2.2130087018013000e-02 2.4677290022373199e-01 1.5325976908206940e-01 -2.8564763069152832e-01 -3.0337825417518616e-01 -3.4081664681434631e-01 8.2666563987731934e-01 3.7098461389541626e-01 -5.6912446022033691e-01 -9.3633972108364105e-02 -5.1977369934320450e-02 2.0265729725360870e-01 6.0338425636291504e-01 7.3800671100616455e-01 1.3312570750713348e-01 2.1695180237293243e-01 -1.8318176269531250e-01 -7.4043571949005127e-01 -9.8232381045818329e-02 -1.8823005259037018e-01 4.9119144678115845e-01 -3.7788495421409607e-02 1.0228467173874378e-02 -8.3612239360809326e-01 -2.6791423559188843e-01 -8.1207156181335449e-02 -3.9377206563949585e-01 -7.0343524217605591e-01 8.2854306697845459e-01 -6.6174888610839844e-01 -5.4524682462215424e-02 -2.1185988187789917e-01 -5.0930643081665039e-01 -6.5844959020614624e-01 2.0895496010780334e-01 -1.6121423244476318e-01 -3.0534458160400391e-01 -6.9641816616058350e-01 3.6786165833473206e-01 4.1748586297035217e-01 -1.6164608299732208e-01 5.1267910003662109e-01 -3.7954905629158020e-01 -1.7113970220088959e-01 4.6705421805381775e-01 -1.8960039317607880e-01 4.4202566146850586e-01 -3.3098420500755310e-01 -2.1997429430484772e-01 -1.0843817144632339e-01 -5.4140532016754150e-01 1.7966037988662720e-01 4.2124131321907043e-01 2.7866190671920776e-01 -4.9486246705055237e-01 2.0788723230361938e-01 3.2647821307182312e-01 4.0194010734558105e-01 3.4517818689346313e-01 -4.3167740106582642e-01 -2.9668945074081421e-01 -3.0790168046951294e-01 -1.3072219491004944e-01 2.7638870477676392e-01 3.2470068335533142e-01 1.8018186092376709e-01 1.6133408248424530e-01 3.0196020007133484e-01 6.2451735138893127e-02 3.9460217952728271e-01 2.9507264494895935e-01 -1.3785815238952637e-01 1.4279586076736450e-01 -5.7902552187442780e-02 7.5194709002971649e-02 -2.6378661394119263e-01 -3.2843276858329773e-02 8.0638043582439423e-02 2.1829287707805634e-01 -4.4713878631591797e-01 -1.2025592476129532e-01 -3.6568975448608398e-01 -5.1723730564117432e-01 -3.2036194205284119e-01 -2.0128352940082550e-01 -2.6800003647804260e-01 -3.7088237702846527e-02 4.2822039127349854e-01 -5.4046732187271118e-01 9.6918404102325439e-02 -2.8864723443984985e-01 2.8741741552948952e-02 9.0047702193260193e-02 -1.1072910577058792e-01 -8.8681995868682861e-02 -5.0086900591850281e-02 -4.5004448294639587e-01 2.3773789405822754e-01 -4.8477792739868164e-01 -5.8246105909347534e-02 3.0902532860636711e-02 -4.0092322975397110e-02 -2.5747698545455933e-01 -2.3504543304443359e-01 3.0557227134704590e-01 -1.6633455455303192e-01 -5.3588554263114929e-02 3.6891239881515503e-01 -4.1659843176603317e-02 1.7747049033641815e-01 2.3657058179378510e-01 -5.4968755692243576e-02 2.1912556886672974e-01 2.1507500112056732e-01 1.3841493427753448e-01 1.5719096362590790e-01 -3.8405746221542358e-01 -2.7886297553777695e-02 2.0511394739151001e-01 2.0850060880184174e-01 -3.8631129264831543e-01 2.1485623717308044e-01 -3.4534138441085815e-01 1.3933025300502777e-02 5.3106278181076050e-01 -6.4419597387313843e-02 -2.7546098828315735e-01 8.2009732723236084e-02 -1.2417047983035445e-03 3.2564619183540344e-01 3.2861751317977905e-01 -1.8856520950794220e-01 7.4239331297576427e-03 -6.6708616912364960e-02 8.6868606507778168e-02 8.8711142539978027e-02 3.8805967569351196e-01 5.5646151304244995e-01 -8.6141604185104370e-01 -4.1137626767158508e-01 -1.4474740624427795e-01 3.0260175466537476e-01 2.1143978834152222e-01 3.4729647636413574e-01 3.6101734638214111e-01 -4.3033176660537720e-01 2.0456717908382416e-01 7.6448142528533936e-01 -9.7182631492614746e-01 3.1133207678794861e-01 -1.7955364286899567e-01 -4.4616460800170898e-01 2.2826483845710754e-01 5.0078350305557251e-01 1.5611055493354797e-01 4.1596722602844238e-01 -2.8838485479354858e-01 3.2711822539567947e-02 -3.3357748389244080e-01 -1.2983837723731995e-01 4.0409123897552490e-01 8.2849420607089996e-02 3.2856106758117676e-01 -2.2337092086672783e-03 3.0977898836135864e-01 -1.2892141938209534e-01 -5.9953209012746811e-02 -2.7644675970077515e-01 1.4505570754408836e-02 -2.7812406420707703e-01 -3.9968717098236084e-01 1.4079092442989349e-01 -2.4348896741867065e-01 5.5654011666774750e-02 -3.5663980245590210e-01 1.8819046020507812e-01 5.6234645843505859e-01 1.8477973341941833e-01 -1.1113060638308525e-02 -2.3513436317443848e-01 -9.7774602472782135e-02 -2.5486254692077637e-01 3.2971647381782532e-01 3.5333901643753052e-01 3.8232940435409546e-01 -1.2544159591197968e-01 -3.3905574679374695e-01 3.1896492838859558e-01 -2.5134569406509399e-01 4.0941712260246277e-01 4.3737557530403137e-01 8.7812639772891998e-02 -4.9919288605451584e-02 -2.0030364394187927e-01 3.7947788834571838e-01 2.1965701878070831e-01 8.0566167831420898e-02 -2.2082026302814484e-01 6.7875802516937256e-01 -7.6910299062728882e-01 7.6520895957946777e-01 -6.6920191049575806e-01 -2.9303866624832153e-01 -4.2394834756851196e-01 -1.7851822078227997e-01 -2.0479723811149597e-01 2.0218519866466522e-01 8.0103211104869843e-02 2.9265564680099487e-01 3.2506521791219711e-02 -4.5952069759368896e-01 4.0991514921188354e-01 3.8678249716758728e-01 1.6402721405029297e-02 2.1621592342853546e-01 4.5978316664695740e-01 -4.9680531024932861e-02 6.5324759483337402e-01 -2.6234880089759827e-01 -2.0703855156898499e-01 -2.6007544994354248e-01 -2.5651255249977112e-01 2.6494500041007996e-01 -3.8555752485990524e-02 3.3550575375556946e-01 -5.2499324083328247e-01 -5.5468954145908356e-02 -1.6786073148250580e-01 2.0580156147480011e-01 1.4595613814890385e-02 9.0609453618526459e-02 -2.3370634019374847e-01 1.1892349272966385e-01 1.7295488715171814e-01 -1.6852013766765594e-01 4.8657491803169250e-02 2.2869299352169037e-01 2.7079975605010986e-01 -7.6550740003585815e-01 -4.0745589137077332e-01 -1.4347149431705475e-01 3.1427478790283203e-01 5.2205055952072144e-01 2.0391251146793365e-01 -1.3649414479732513e-01 -2.1302230656147003e-01 2.2377612069249153e-02 -3.4432476758956909e-01 -1.6970773041248322e-01 -3.8448989391326904e-01 4.2116871476173401e-01 -5.1450288295745850e-01 1.4154152572154999e-01 2.1660602092742920e-01 -2.8720033168792725e-01 -1.4953079819679260e-01 -1.1439558118581772e-01 1.3271351158618927e-01 4.7383350133895874e-01 2.9737573862075806e-01 1.4963224530220032e-01 -9.3280576169490814e-02 -2.1386051177978516e-01 -2.8672206401824951e-01 2.0773497223854065e-01 2.1804974973201752e-01 -5.3939484059810638e-02 -4.0415504574775696e-01 2.3000980913639069e-01 -4.5540586113929749e-02 7.8112110495567322e-02 -8.2676835358142853e-02 -1.9674476981163025e-01 -4.3479526042938232e-01 1.4068256318569183e-01 -1.9104722142219543e-01 -2.6619179174304008e-02 5.9753113985061646e-01 -7.0764237642288208e-01 -1.7484685778617859e-01 6.5180383622646332e-02 -2.2710354626178741e-01 -3.6570516228675842e-01 -1.3434080779552460e-01 7.0007540285587311e-02 2.1769016981124878e-01 -3.1291583180427551e-01 -3.0733144283294678e-01 -2.5820091366767883e-01 3.3778987824916840e-02 2.1259278059005737e-01 3.5173092037439346e-02 2.2783012688159943e-01 -3.6385658383369446e-01 4.6146959066390991e-01 2.1976044774055481e-01 2.1280497312545776e-01 4.2824539542198181e-01 1.4421714842319489e-01 4.2614021897315979e-01 2.4595448374748230e-01 -3.0472290515899658e-01 -1.2660804390907288e-01 3.6914387345314026e-01 2.0182465016841888e-01 4.1098588705062866e-01 1.3636137545108795e-01 -3.7818619608879089e-01 -1.3768295943737030e-01 4.3589848279953003e-01 -3.4494912624359131e-01 -3.6091995239257812e-01 -7.6607003808021545e-02 -1.8562453985214233e-01 8.0849848687648773e-02 -1.5746101737022400e-01 2.5670859217643738e-01 -1.6271421313285828e-01 1.3867243193089962e-02 3.1532639265060425e-01 -9.2152338474988937e-03 -2.7896723151206970e-01 1.7466026544570923e-01 2.3558127880096436e-01 -1.0409461706876755e-01 5.5809473991394043e-01 -3.8882058858871460e-01 2.3088495433330536e-01 8.7076038122177124e-02 8.4038071334362030e-02 -8.5414610803127289e-02 -2.6003965735435486e-01 2.1522064507007599e-01 -2.2885659337043762e-01 1.1656699329614639e-01 -2.8078505396842957e-01 8.6904668807983398e-01 9.5236271619796753e-02 -3.8585597276687622e-01 5.9768444299697876e-01 -2.9743361473083496e-01 -1.5046551823616028e-01 3.2685708999633789e-01 1.7172627151012421e-01 4.2651775479316711e-01 -1.7155271023511887e-02 4.6052286028862000e-01 1.5381062030792236e-01 2.4021704494953156e-01 2.0105509459972382e-01 9.2068031430244446e-02 3.9799225330352783e-01 4.6790856122970581e-01 3.4484982490539551e-02 5.2030235528945923e-01 2.2111794352531433e-01 -3.2448998093605042e-01 7.9344756901264191e-02 6.6575653851032257e-02 3.8608351349830627e-01 4.4543632864952087e-01 1.2809073925018311e-01 -1.9219288229942322e-01 2.0001950860023499e-01 3.6226806044578552e-01 -1.7900744080543518e-01 -1.1698815226554871e-01 -2.7325752377510071e-01 1.0757637210190296e-02 4.4346168637275696e-01 -8.9854344725608826e-02 2.3406355082988739e-01 -8.1322848796844482e-02 -3.5098776221275330e-01 1.5232883393764496e-01 2.9695761203765869e-01 -4.0310785174369812e-02 6.1656981706619263e-01 -2.3176190257072449e-01 -3.5746860504150391e-01 1.6200605779886246e-02 -1.4432716369628906e-01 -2.9193985462188721e-01 7.0759445428848267e-02 3.6020509898662567e-02 -6.1176723241806030e-01 -2.7831783890724182e-01 -3.8253164291381836e-01 1.5512691438198090e-01 2.0824460685253143e-01 2.4232243001461029e-01 3.0025836825370789e-01 -2.5622224807739258e-01 3.3126971125602722e-01 -3.5040158033370972e-01 4.0186962485313416e-01 
      </Weights>
      <Biases rows="100" cols="1">
        -8.5203893482685089e-02 3.8714312016963959e-02 -1.0855018161237240e-02 -9.1680936748161912e-04 -6.8025705404579639e-03 -1.4576566219329834e-01 -2.1525322517845780e-04 3.7137635052204132e-02 -5.8076477050781250e-01 1.3102388381958008e-01 2.7277562022209167e-01 1.4197247764968779e-05 2.3333987593650818e-01 8.0282086855731905e-05 1.8481941521167755e-01 6.2111686915159225e-02 3.5623300075531006e-01 -1.5076026320457458e-01 1.2413902580738068e-01 -2.2995631396770477e-01 -8.4001990035176277e-03 -6.0889692977070808e-03 2.1692104637622833e-01 1.8257218599319458e-01 5.8738794177770615e-02 -2.5974938273429871e-01 -4.9174971878528595e-02 2.4076575413346291e-02 -1.6316147148609161e-01 -1.7500774562358856e-01 -8.5731483995914459e-02 0.0000000000000000e+00 -2.8502553701400757e-01 5.6638560636201873e-05 -7.9681582748889923e-02 -2.2913906723260880e-02 -5.1852285861968994e-01 -3.0638944357633591e-02 5.7683461904525757e-01 4.0390402078628540e-01 -1.8156247213482857e-02 -1.8097089231014252e-01 -7.7310942113399506e-02 -8.9489662786945701e-04 3.0938278883695602e-02 1.6515912488102913e-02 3.2921564579010010e-01 1.1241316795349121e-01 -9.5870591700077057e-02 -2.3051755502820015e-02 6.9979116320610046e-02 -4.0135332942008972e-01 1.3538017868995667e-01 -1.7163321375846863e-02 9.5215477049350739e-02 -9.6858125180006027e-03 -2.0767735259141773e-04 -2.0874074101448059e-01 1.2362608686089516e-03 7.3378086090087891e-02 -5.3009658586233854e-04 3.1598109006881714e-01 -2.8496661782264709e-01 -4.0009671449661255e-01 -2.7926883101463318e-01 1.1728751659393311e-01 1.1225421726703644e-01 3.4667649306356907e-03 -1.6338202357292175e-01 1.2245183438062668e-01 1.4759066700935364e-01 2.2239245822675002e-07 -1.1842693388462067e-01 1.8506590276956558e-02 5.2196800708770752e-01 6.0788607597351074e-01 -2.7411928400397301e-02 -2.5172187015414238e-02 1.6299842298030853e-01 7.6909316703677177e-03 -1.0389860719442368e-01 6.1542563140392303e-02 7.7750787138938904e-02 -1.3418103568255901e-02 4.1382285952568054e-01 -1.1167343705892563e-01 -3.1693071126937866e-02 -1.7983193695545197e-01 3.6089575290679932e-01 -4.9657404422760010e-02 -2.5963385123759508e-03 -2.5725871324539185e-01 1.1384674161672592e-01 2.2427730727940798e-03 -6.4274743199348450e-02 1.9291572272777557e-01 7.5913436012342572e-04 -1.4308120310306549e-01 1.4462035894393921e-01 -3.6282234359532595e-03 
      </Biases>
    </Layer>
    <Layer ActivationFunction="0">
      <Weights rows="3" cols="100">
        4.3977367877960205e-01 -8.5787497460842133e-02 5.9852089732885361e-02 5.3266312927007675e-02 -2.7481970191001892e-01 -3.2064867019653320e-01 -3.4487355500459671e-02 8.5977546870708466e-02 5.2727007865905762e-01 -2.6567038893699646e-01 -2.6093548536300659e-01 -7.7474713325500488e-02 2.9398545622825623e-01 2.7532700449228287e-02 -1.2654088437557220e-01 -2.2992800176143646e-01 -4.3948525190353394e-01 4.4008982181549072e-01 -6.3548165559768677e-01 6.2080842256546021e-01 -7.6671496033668518e-02 1.4091059565544128e-01 1.6375284641981125e-02 -1.4669346809387207e+00 3.3459875732660294e-02 2.9771912097930908e-01 1.7753948271274567e-01 3.0414530634880066e-01 3.1210592389106750e-01 1.4015118777751923e-01 2.6401373744010925e-01 8.6239457130432129e-02 6.6320335865020752e-01 -1.0718976706266403e-01 4.1684767603874207e-01 1.2927399575710297e-01 2.8297308087348938e-01 6.5875694155693054e-02 -5.5870365351438522e-02 -7.5219881534576416e-01 4.8572350293397903e-02 -1.4826554059982300e-01 2.0758478343486786e-01 -2.5144066661596298e-02 -2.9047554731369019e-01 -1.0352680832147598e-01 -6.2596523761749268e-01 -3.1134609133005142e-02 4.9303624033927917e-01 1.3316603004932404e-01 -3.8090491294860840e-01 -2.9296186566352844e-01 1.0539469122886658e-01 1.0007266700267792e-01 1.7433452606201172e-01 8.3168046548962593e-03 8.1750698387622833e-02 3.7213203310966492e-01 -9.2709764838218689e-02 5.4890018701553345e-01 -2.5233393535017967e-02 -8.2367348670959473e-01 6.2609714269638062e-01 9.9192982912063599e-01 6.8115824460983276e-01 -4.6135699748992920e-01 -5.3988080471754074e-02 1.0514353960752487e-01 3.8375630974769592e-01 -4.0616485476493835e-01 -1.0449163615703583e-02 4.5458145439624786e-02 2.4816837906837463e-01 -1.2435757368803024e-01 -7.4996417760848999e-01 -9.0478569269180298e-01 2.4405874311923981e-02 -1.4286575838923454e-02 -3.3384177088737488e-01 -8.3703324198722839e-02 7.8326553106307983e-01 -1.0901829600334167e-01 -2.7671179175376892e-01 4.9296531826257706e-02 -4.9186944961547852e-01 2.7049365639686584e-01 -1.0533450543880463e-01 4.0906164050102234e-01 -2.6447486877441406e-01 1.2238459289073944e-01 1.0309290885925293e-01 -9.0461164712905884e-02 -5.2051763981580734e-02 -1.7966156825423241e-02 -8.9168536663055420e-01 -1.9761304557323456e-01 7.9077102243900299e-02 -1.1259699612855911e-01 -8.9349552989006042e-02 -3.5147252678871155e-01 -3.0857568979263306e-01 1.5239754319190979e-01 1.2776145013049245e-03 1.1561627686023712e-01 2.5990191102027893e-01 4.1348212957382202e-01 -8.7022662162780762e-02 -1.1171320080757141e-01 5.9515887498855591e-01 -5.4960471391677856e-01 -7.0208650827407837e-01 5.8199204504489899e-02 -8.0628240108489990e-01 -1.8709233030676842e-02 -1.1153928190469742e-01 -1.4277453720569611e-01 -4.2259374260902405e-01 -9.0549252927303314e-03 -1.4847492799162865e-02 -6.1781412363052368e-01 -6.3348501920700073e-01 1.0117045044898987e-01 -3.6591169238090515e-01 4.5532831549644470e-01 -1.3271199539303780e-02 4.4218307733535767e-01 -5.3153485059738159e-01 -8.8572520017623901e-01 2.2400185465812683e-01 2.5894114375114441e-01 -1.0074349492788315e-01 1.2333826720714569e-01 3.1659963726997375e-01 -2.2738760337233543e-02 -2.8717231750488281e-01 5.1841132342815399e-02 7.0852953195571899e-01 9.5039650797843933e-02 -9.5455247163772583e-01 -8.5906445980072021e-01 8.3507513627409935e-03 1.8198841810226440e-01 -2.1046569943428040e-01 7.9310752451419830e-02 9.0661220252513885e-02 5.1377672702074051e-02 -1.6765680909156799e-01 -5.4514777660369873e-01 -2.8085973858833313e-01 6.5908677875995636e-02 5.8707594871520996e-02 3.7485781311988831e-01 -4.1297176480293274e-01 3.7797759287059307e-03 -4.0715041756629944e-01 1.1485172063112259e-01 -2.4680554866790771e-02 -4.1193820536136627e-02 1.8990004062652588e-01 -3.4140759706497192e-01 3.6624621599912643e-02 -5.0282752513885498e-01 -2.1065870299935341e-02 7.5144223868846893e-02 1.3782003521919250e-01 2.2150345146656036e-01 -3.6556839942932129e-01 -9.5180340111255646e-02 -3.3637098968029022e-02 -7.3447071015834808e-02 -4.2039829492568970e-01 -6.5960533916950226e-02 -1.0046831518411636e-01 5.1657386124134064e-02 -1.2841849029064178e-01 -4.5472946763038635e-01 1.1624076962471008e-01 1.1108968406915665e-01 -1.2785533070564270e-01 1.2828462757170200e-02 -8.2423532009124756e-01 -1.1821297556161880e-01 -4.1118180751800537e-01 -1.1714505963027477e-02 -4.5915475487709045e-01 -4.0482056140899658e-01 6.0470703989267349e-02 8.3275668323040009e-02 -4.5197978615760803e-01 -9.5720097422599792e-02 1.1338448524475098e-01 4.7853404283523560e-01 7.0592515170574188e-02 -9.9683739244937897e-02 5.2101778984069824e-01 -6.0992819070816040e-01 -1.2003128975629807e-01 2.9329067468643188e-01 -1.9531933963298798e-01 2.9330676794052124e-01 -9.7040869295597076e-02 -1.3630940020084381e-01 -2.8910087421536446e-02 5.2176363766193390e-02 -4.8042807728052139e-02 -2.3970897495746613e-01 5.8925282210111618e-02 2.0283604040741920e-02 -1.2256928682327271e+00 4.3156808614730835e-01 5.7072716951370239e-01 8.7469786405563354e-02 1.5915872156620026e-01 6.6016182303428650e-02 2.5795000791549683e-01 2.0568887889385223e-01 6.6051548719406128e-01 -4.8854279518127441e-01 4.0077334642410278e-01 -4.1335594654083252e-01 -5.3777642548084259e-02 5.7782754302024841e-02 1.3990418612957001e-01 7.1299105882644653e-01 2.0053654909133911e-01 -5.2170002460479736e-01 -1.5522190928459167e-01 -4.4478062540292740e-02 -5.2872741222381592e-01 -3.0233219265937805e-01 -1.9272042810916901e-01 6.5497271716594696e-02 -7.0177614688873291e-01 1.3696983456611633e-01 -5.0959688425064087e-01 -3.7227320671081543e-01 -6.9481474161148071e-01 -2.3122447729110718e-01 6.3280147314071655e-01 8.7043058872222900e-01 6.6903769969940186e-02 -3.7424546480178833e-01 -2.6523807644844055e-01 1.3512088358402252e-01 1.0906782001256943e-01 -1.2220123410224915e-01 7.6964181661605835e-01 -1.8060034140944481e-02 -1.2918548285961151e-01 3.8866370916366577e-02 1.8704254925251007e-01 -1.0101022720336914e+00 1.8843793869018555e-01 -1.1547031253576279e-01 -1.3164409995079041e-01 1.0896950960159302e-01 -6.4474128186702728e-02 -4.9344745278358459e-01 -4.8584744334220886e-02 -2.2016227245330811e-02 4.7813039273023605e-02 8.1623071432113647e-01 -7.5073176622390747e-01 -9.9609971046447754e-01 -7.2114646434783936e-01 1.1752986907958984e-01 4.4105675071477890e-02 1.9617985934019089e-02 -2.8112566471099854e-01 2.9832583665847778e-01 8.1459559500217438e-02 -1.1304961517453194e-02 -3.7848964333534241e-01 -1.0542734712362289e-01 9.1629552841186523e-01 1.0002325773239136e+00 -1.3479568064212799e-01 -1.1056604981422424e-01 1.9236123561859131e-01 1.1199018359184265e-01 -6.3373667001724243e-01 5.9075664728879929e-02 4.3664529919624329e-01 7.1776308119297028e-02 6.0228294134140015e-01 -1.6856217384338379e-01 -6.0847468674182892e-02 -4.1654989123344421e-01 5.1525485515594482e-01 -2.4672117829322815e-01 -6.9103866815567017e-02 -2.0503854751586914e-01 3.3570486307144165e-01 3.6306191235780716e-02 1.7011043429374695e-01 2.3392982780933380e-01 -1.3299147784709930e-01 -4.0830609202384949e-01 6.0172539949417114e-01 1.7615314573049545e-02 
      </Weights>
      <Biases rows="3" cols="1">
        -3.4155139327049255e-01 -5.5882126092910767e-01 4.7526910901069641e-01 
      </Biases>
    </Layer>
  </Weights>
</MethodSetup>
